{
  "metadata": {
    "source_csv": "D:\\working\\squid robot\\code\\learning\\tests\\fixtures\\sample_control_telemetry.csv",
    "window_size": 3,
    "feature_columns": [
      "depth_err_cm",
      "depth_speed_cm_s",
      "depth_accel_cm_s2",
      "roll_deg",
      "pitch_deg",
      "gyro_x_deg_s",
      "gyro_y_deg_s",
      "gyro_z_deg_s",
      "battery_v",
      "buoyancy_pwm_applied"
    ],
    "feature_names": [
      "t-2_depth_err_cm",
      "t-2_depth_speed_cm_s",
      "t-2_depth_accel_cm_s2",
      "t-2_roll_deg",
      "t-2_pitch_deg",
      "t-2_gyro_x_deg_s",
      "t-2_gyro_y_deg_s",
      "t-2_gyro_z_deg_s",
      "t-2_battery_v",
      "t-2_buoyancy_pwm_applied",
      "t-1_depth_err_cm",
      "t-1_depth_speed_cm_s",
      "t-1_depth_accel_cm_s2",
      "t-1_roll_deg",
      "t-1_pitch_deg",
      "t-1_gyro_x_deg_s",
      "t-1_gyro_y_deg_s",
      "t-1_gyro_z_deg_s",
      "t-1_battery_v",
      "t-1_buoyancy_pwm_applied",
      "t-0_depth_err_cm",
      "t-0_depth_speed_cm_s",
      "t-0_depth_accel_cm_s2",
      "t-0_roll_deg",
      "t-0_pitch_deg",
      "t-0_gyro_x_deg_s",
      "t-0_gyro_y_deg_s",
      "t-0_gyro_z_deg_s",
      "t-0_battery_v",
      "t-0_buoyancy_pwm_applied"
    ],
    "target_column": "auto",
    "train_examples": 1,
    "val_examples": 3,
    "epochs": 30,
    "learning_rate": 0.01,
    "l2": 0.0001,
    "best_val_loss": 2.0334634492520505
  },
  "input_standardizer": {
    "means": [
      0.6,
      0.13,
      -0.02,
      -0.2,
      0.2,
      -0.16,
      0.3,
      -0.2,
      11.78,
      91.0,
      0.4,
      0.11,
      -0.02,
      -0.1,
      0.1,
      -0.14,
      0.28,
      -0.16,
      11.77,
      90.0,
      0.2,
      0.1,
      -0.01,
      -0.1,
      0.1,
      -0.1,
      0.24,
      -0.14,
      11.76,
      90.0
    ],
    "stds": [
      1.0,
      1.0,
      1.0,
      1.0,
      1.0,
      1.0,
      1.0,
      1.0,
      1.0,
      1.0,
      1.0,
      1.0,
      1.0,
      1.0,
      1.0,
      1.0,
      1.0,
      1.0,
      1.0,
      1.0,
      1.0,
      1.0,
      1.0,
      1.0,
      1.0,
      1.0,
      1.0,
      1.0,
      1.0,
      1.0
    ]
  },
  "target_standardizer": {
    "means": [
      0.0
    ],
    "stds": [
      1.0
    ]
  },
  "model": {
    "input_dim": 30,
    "hidden_dims": [
      8,
      4
    ],
    "layers": [
      {
        "activation": "tanh",
        "weights": [
          [
            -0.08082864618252456,
            -0.1601965800193538,
            0.06925140822316019,
            -0.19617380083592956,
            0.01646329879491217,
            -0.06162430262916388,
            -0.20279791805693226,
            0.003411646022065975,
            -0.21220517961964097,
            -0.03044453500593925,
            -0.19735794651197366,
            -0.18778811508400106,
            -0.0346319322579587,
            0.1499655410616094,
            -0.17260632005717585,
            -0.12698286253799276,
            0.058468618389597694,
            0.2054167885891967,
            0.03537619777895187,
            -0.047404827295436436,
            0.21851427358858527,
            -0.2080358929778736,
            0.16447167497747497,
            -0.09653098397713275,
            -0.16322206550668633,
            -0.17536368739238542,
            -0.08787192954766476,
            0.14504436994815675,
            -0.1464883889907341,
            0.03743959965576599
          ],
          [
            0.06373595872801262,
            -0.05854626634331215,
            0.02190600608766313,
            -0.20060015822756436,
            -0.20206277959851893,
            -0.13491134797042403,
            0.08277070131592988,
            -0.03322193199205039,
            -0.08527256838315407,
            0.03925729767869035,
            -0.021479836897917996,
            -0.09187044656313254,
            0.1350665175215033,
            0.09130216899292717,
            -0.11741305113929762,
            0.03414691578937397,
            0.011560602002317285,
            0.17211972402692832,
            0.10527356066391044,
            -0.09729790760542675,
            0.22031272056332818,
            -0.17523818231688335,
            -0.03756669883635194,
            0.11798081064955908,
            -0.15967565641438836,
            -0.005063924887896032,
            -0.2114198678790348,
            0.0771804129027305,
            0.12138979711560514,
            0.033505594177242144
          ],
          [
            0.1722758671504683,
            -0.08545593833245511,
            0.08960497135957583,
            0.04329857024540363,
            0.0366573341093437,
            -0.020093769295786313,
            0.15598323614764406,
            0.20402755862347252,
            -0.011884141328913819,
            0.07531593785772936,
            -0.2015726440860608,
            0.0924481063870541,
            0.06750532307891785,
            0.2262411463030716,
            0.14770479112996612,
            -0.09883138317978475,
            -0.0524009080391644,
            0.07738085170613518,
            -0.21905658067499606,
            -0.017574880753886926,
            -0.15230528029612395,
            -0.1756832280436609,
            -0.2023595202392456,
            0.12307004363889719,
            -0.17006526792664708,
            -0.11579878227361716,
            -0.05003420671951893,
            0.1704149770111214,
            -0.19243672397720926,
            -0.023313719979719316
          ],
          [
            0.02268390554983183,
            0.17590328661397298,
            0.14649124180894774,
            0.16700251831353793,
            -0.10166433821218353,
            -0.038863457408747366,
            -0.06479828951944197,
            0.1762744704828866,
            0.2100151795926638,
            -0.16016366816908548,
            -0.14855703808509604,
            -0.1229829346698941,
            -0.1223501255576465,
            -0.006899365524120436,
            0.04089144126544965,
            -0.10885605116164189,
            -0.22753063379622615,
            -0.03718878017352111,
            -0.05998877535946509,
            0.03043852787495572,
            0.2078893494219855,
            0.08740186220256665,
            0.007107743737661357,
            0.05395363517296027,
            0.08084371709730603,
            -0.20463595625125602,
            0.18331281794613952,
            0.12845495863491102,
            0.17183327888655364,
            0.13666946125186047
          ],
          [
            -0.049378462734140066,
            -0.04635030010885493,
            -0.18190419998721752,
            0.061614430064338935,
            -0.2008484489667072,
            -0.19850857309494097,
            -0.13362460628166123,
            -0.15494127569570784,
            -0.07338621588546454,
            -0.2052862336877449,
            -0.2293018176322094,
            -0.16000582272594496,
            -0.18285520322620294,
            -0.06257818228363639,
            -0.21770859325380085,
            0.17175032154394268,
            0.05233687096026631,
            -0.16125125903977877,
            -0.11366852707172641,
            -0.07002037793292143,
            -0.062324218658603214,
            -0.17304666134904206,
            0.16009843910039281,
            0.22624425811396856,
            -0.015604638225914031,
            -0.007416945811239407,
            -0.1900034483604933,
            -0.18252336390724072,
            -0.07220146323134406,
            -0.10793370258812299
          ],
          [
            0.15088466920783947,
            -0.15533795904162745,
            -0.21881212581930773,
            0.20692016463101318,
            0.012964993085897476,
            -0.16214501134717813,
            0.019808273276026165,
            -0.21700127770071373,
            0.012897109123834648,
            0.21954484106537653,
            0.16669995583870548,
            0.09001855864554928,
            -0.10960457648803935,
            -0.061160495353115206,
            -0.15276700890940415,
            0.12476992649074184,
            0.014953968952837534,
            0.12803532425377076,
            -0.078152715712114,
            -0.12707338337260057,
            0.14292687470229312,
            0.22249265665536494,
            0.16179233545142177,
            0.14043427320783483,
            0.1460567898447204,
            0.11005798821966126,
            -0.12537675950340996,
            0.008092958941197097,
            -0.06627046208456082,
            -0.21611224530268977
          ],
          [
            -0.21659082672474392,
            -0.10120667923717627,
            -0.11049506546820108,
            0.08833247506731157,
            0.2094571987102871,
            -0.024212875668872633,
            0.20051306373041577,
            0.22392050083959691,
            0.2087623445248938,
            -0.062107452146448035,
            -0.12825683486389464,
            -0.1253279703433648,
            -0.13915658143299964,
            -0.13563873440623764,
            0.05692385949149311,
            0.18366855207840863,
            0.15619784664474778,
            -0.009417955413073033,
            0.07018903422523966,
            0.1374818547292447,
            -0.19051098108164197,
            0.07367953916123808,
            0.18801300499203658,
            0.129525560831224,
            0.11476887120594446,
            -0.010078965666522235,
            -0.1474999267556746,
            0.13266045431567852,
            -0.07684407364957191,
            0.1380231788884436
          ],
          [
            0.21640471393243568,
            -0.047791142432913276,
            -0.04524547371113457,
            0.2049983762120156,
            0.10314160740300964,
            -0.15140816272900667,
            -0.17112139962228573,
            -0.16005823434296584,
            0.18575330861771736,
            0.14062853535994224,
            -0.1623414909233486,
            0.14980878776136525,
            0.2203728697080204,
            0.07215747682735027,
            -0.06863568165745347,
            0.022326089609731477,
            -0.16931114138970732,
            -0.22287393932963248,
            0.2160527494839311,
            0.06867338813653395,
            0.01219585497323524,
            0.19895473701883218,
            -0.03036940218698699,
            0.17056223632535902,
            0.1496458034581638,
            -0.1325788910503886,
            -0.11386258181304056,
            -0.09499056486556422,
            -0.11904511992450854,
            0.0396589029514444
          ]
        ],
        "biases": [
          0.0,
          0.0,
          0.0,
          0.0,
          0.0,
          0.0,
          0.0,
          0.0
        ]
      },
      {
        "activation": "tanh",
        "weights": [
          [
            -0.19647192766352642,
            -0.066123990023531,
            -0.3012180450677222,
            0.3347674814235916,
            -0.1193812630257707,
            -0.03416038666773356,
            0.06805194580667626,
            0.3300970310292555
          ],
          [
            -0.06480480141419237,
            0.34105760526045614,
            0.0013463143967622129,
            0.025984193479206087,
            0.019192470978152323,
            -0.3929640406684324,
            -0.04888633770757821,
            -0.258733564437968
          ],
          [
            -0.40502528155188056,
            0.24426432189826547,
            -0.2675197634901445,
            -0.021642280736747118,
            0.18386401936213825,
            0.04611077129383329,
            -0.14208071620144572,
            0.014981211743136087
          ],
          [
            0.04526674325659739,
            0.23210054106361214,
            -0.32160066602392856,
            0.04923010998826657,
            -0.20534736643574278,
            -0.18214098491460282,
            0.22229358734249427,
            0.006298258973036384
          ]
        ],
        "biases": [
          0.0,
          0.0,
          0.0,
          0.0
        ]
      },
      {
        "activation": "linear",
        "weights": [
          [
            0.07807984172830897,
            0.3288583367407297,
            0.5217450283555303,
            -0.07178358132667388
          ]
        ],
        "biases": [
          0.0
        ]
      }
    ]
  }
}